#pragma once
#include <cstdarg>
namespace Eloquent {
    namespace ML {
        namespace Port {
            class SVM {
                public:
                    /**
                    * Predict class for features vector
                    */
                    int predict(float *x) {
                        float kernels[47] = { 0 };
                        float decisions[15] = { 0 };
                        int votes[6] = { 0 };
                        kernels[0] = compute_kernel(x,   0.01  , 0.0  , -0.02  , 0.02  , -0.01  , 0.02  , 0.1  , -0.01  , -0.04  , 0.05  , 0.03  , 0.02  , 0.07  , 0.01  , 0.03  , 0.08  , 0.03  , -0.03  , 0.21  , -0.01  , -0.07  , -0.07  , 0.08  , -0.03  , 0.35  , -0.09  , -0.04  , 0.24  , -0.05  , 0.02  , 0.21  , -0.02  , -0.04  , 0.14  , -0.02  , -0.06  , 0.14  , -0.0  , -0.01  , 0.15  , -0.04  , -0.02  , 0.25  , -0.01  , -0.02  , 0.29  , -0.0  , -0.0  , 0.17  , -0.02  , -0.07  , 0.27  , -0.08  , 0.02  , 0.4  , -0.07  , 0.0  , 0.18  , -0.05  , -0.06  , 0.27  , -0.02  , -0.04  , 0.24  , -0.04  , -0.04  , 0.22  , -0.03  , -0.03  , 0.26  , -0.02  , -0.07  , 0.31  , -0.05  , -0.02  , 0.24  , -0.06  , -0.03  , 0.24  , -0.02  , -0.01  , 0.2  , -0.02  , -0.04  , 0.24  , -0.03  , 0.03  , 0.18  , -0.03  , -0.06 );
                        kernels[1] = compute_kernel(x,   0.44  , -0.02  , 0.0  , 0.38  , -0.04  , -0.04  , 0.4  , -0.02  , 0.02  , 0.37  , -0.04  , -0.06  , 0.38  , -0.05  , -0.05  , 0.39  , -0.04  , -0.03  , 0.4  , -0.04  , -0.03  , 0.41  , -0.04  , -0.05  , 0.39  , -0.05  , -0.04  , 0.41  , -0.05  , -0.03  , 0.36  , -0.03  , -0.04  , 0.41  , -0.04  , -0.04  , 0.37  , -0.03  , -0.02  , 0.41  , -0.03  , -0.06  , 0.38  , -0.05  , -0.05  , 0.41  , -0.05  , -0.02  , 0.39  , -0.05  , -0.08  , 0.39  , -0.03  , -0.06  , 0.4  , -0.04  , -0.07  , 0.39  , -0.04  , -0.02  , 0.37  , -0.05  , -0.02  , 0.38  , -0.04  , -0.05  , 0.39  , -0.05  , -0.03  , 0.38  , -0.04  , -0.06  , 0.41  , -0.03  , -0.02  , 0.37  , -0.06  , -0.05  , 0.4  , -0.05  , -0.03  , 0.38  , -0.05  , -0.02  , 0.42  , -0.03  , -0.04  , 0.39  , -0.04  , -0.03 );
                        kernels[2] = compute_kernel(x,   0.42  , -0.05  , -0.0  , 0.29  , -0.05  , -0.12  , 0.43  , -0.03  , -0.02  , 0.37  , -0.03  , -0.04  , 0.4  , -0.04  , -0.03  , 0.44  , -0.02  , -0.02  , 0.27  , -0.05  , -0.08  , 0.43  , -0.04  , -0.09  , 0.4  , -0.05  , 0.02  , 0.39  , -0.03  , -0.12  , 0.44  , -0.06  , 0.04  , 0.34  , -0.03  , -0.09  , 0.44  , -0.02  , -0.03  , 0.35  , -0.06  , -0.11  , 0.49  , -0.05  , 0.03  , 0.33  , -0.04  , -0.04  , 0.28  , -0.05  , -0.08  , 0.28  , -0.04  , -0.06  , 0.34  , -0.05  , -0.04  , 0.35  , -0.02  , -0.02  , 0.2  , -0.06  , -0.1  , 0.34  , -0.04  , -0.02  , 0.42  , -0.07  , 0.06  , 0.34  , -0.03  , -0.08  , 0.34  , -0.07  , -0.07  , 0.33  , -0.05  , -0.1  , 0.36  , -0.07  , 0.08  , 0.43  , -0.05  , -0.06  , 0.28  , -0.05  , -0.05  , 0.24  , -0.01  , -0.15 );
                        kernels[3] = compute_kernel(x,   -0.48  , 0.12  , 0.03  , -0.38  , 0.03  , -0.04  , -0.08  , -0.13  , 0.02  , -0.28  , -0.17  , 0.18  , -0.56  , -0.16  , -0.02  , -0.25  , -0.04  , -0.17  , -0.23  , -0.16  , -0.02  , -0.49  , -0.07  , 0.12  , -0.37  , 0.41  , -0.15  , -0.65  , 0.88  , -0.01  , -0.3  , 1.11  , 0.58  , -0.34  , 0.85  , 0.42  , -0.42  , 0.09  , 0.08  , -0.35  , -0.03  , -0.39  , -0.21  , -0.09  , -0.71  , -0.41  , -0.34  , -0.22  , -0.13  , -0.43  , 0.14  , -0.55  , 0.33  , -0.08  , -0.17  , 0.86  , 0.15  , -0.22  , 0.79  , 0.15  , -0.33  , 0.49  , 0.22  , -0.12  , 0.07  , 0.18  , -0.12  , -0.25  , -0.37  , -0.38  , -0.17  , -0.36  , -0.02  , -0.1  , 0.08  , -0.38  , 0.43  , 0.21  , 0.04  , 0.76  , 0.3  , 0.08  , 0.23  , 0.31  , -0.11  , -0.19  , 0.27  , -0.03  , -0.3  , 0.19 );
                        kernels[4] = compute_kernel(x,   -0.16  , 0.56  , -0.34  , -0.16  , 0.64  , -0.51  , 0.02  , 0.74  , -0.67  , -0.07  , 0.65  , -0.52  , 0.11  , 0.63  , 0.31  , 0.45  , 0.33  , 0.44  , 0.2  , 0.18  , 0.06  , 0.23  , 0.36  , -0.05  , 0.28  , 0.61  , -0.01  , 0.21  , 0.79  , 0.24  , 0.4  , 0.7  , 0.24  , 0.3  , 0.11  , 0.23  , 0.28  , -0.04  , -0.08  , 0.31  , -0.17  , -0.32  , 0.33  , 0.0  , -0.2  , 0.35  , 0.13  , 0.03  , 0.21  , 0.32  , 0.05  , 0.37  , 0.38  , 0.15  , 0.2  , 0.22  , -0.11  , 0.17  , 0.22  , -0.28  , 0.06  , 0.33  , -0.32  , 0.25  , 0.43  , 0.22  , 0.3  , 0.53  , 0.38  , 0.32  , 0.44  , 0.58  , 0.19  , 0.48  , 0.06  , -0.04  , 0.59  , -0.04  , 0.11  , 0.64  , -0.36  , -0.06  , 0.52  , -0.5  , -0.05  , 0.39  , -0.18  , 0.17  , 0.49  , -0.05 );
                        kernels[5] = compute_kernel(x,   1.31  , 0.08  , -0.04  , 1.44  , 0.34  , 0.39  , 1.44  , 0.28  , 0.51  , 1.29  , 0.27  , 0.2  , 1.2  , 0.36  , -0.13  , 0.78  , 0.29  , 0.08  , 1.08  , 0.42  , 0.53  , 1.2  , 0.25  , 0.35  , 0.8  , -0.22  , -0.33  , 0.91  , -0.33  , -0.85  , 0.61  , 0.23  , -0.78  , 0.91  , 0.14  , 0.16  , 1.02  , -0.38  , 0.18  , 0.63  , -0.34  , -0.49  , 0.81  , 0.33  , -0.36  , 0.83  , 0.32  , -0.14  , 1.02  , 0.19  , -0.11  , 0.9  , 0.65  , 0.29  , 1.58  , 0.64  , 0.93  , 1.36  , 0.32  , 0.8  , 1.59  , 0.32  , 0.85  , 1.68  , 0.27  , 0.55  , 0.93  , 0.37  , -0.62  , 0.71  , 0.2  , -1.02  , 0.4  , -0.12  , -0.94  , 0.14  , 0.26  , -0.26  , 0.69  , 0.68  , 0.36  , 1.4  , 0.94  , 0.62  , -0.03  , 0.8  , 0.1  , 0.17  , 0.24  , -1.8 );
                        kernels[6] = compute_kernel(x,   0.68  , 0.84  , -0.06  , 0.81  , 0.94  , -0.06  , 0.99  , 1.06  , 0.06  , 1.11  , 1.05  , 0.16  , 1.07  , 0.57  , 0.52  , 0.97  , 0.58  , 0.13  , 1.03  , 0.83  , -0.35  , 0.95  , 0.67  , -0.2  , 0.89  , 0.52  , -0.05  , 1.18  , 0.55  , 0.28  , 1.13  , 0.63  , 0.59  , 1.2  , 0.63  , 0.39  , 1.06  , 0.43  , 0.06  , 0.96  , 0.36  , -0.14  , 0.97  , 0.57  , -0.37  , 1.01  , 0.68  , -0.31  , 1.05  , 0.38  , 0.13  , 0.94  , 0.35  , 0.18  , 0.96  , 0.46  , -0.32  , 0.92  , 0.56  , -0.74  , 0.9  , 0.43  , -0.52  , 1.1  , 0.18  , 0.16  , 0.97  , 0.36  , 0.54  , 0.93  , 0.54  , 0.88  , 1.06  , 0.58  , -0.05  , 0.9  , 0.56  , -0.74  , 0.73  , 0.14  , -0.21  , 0.8  , 0.27  , -0.0  , 0.63  , 1.01  , -0.23  , 0.72  , 1.16  , -0.34 );
                        kernels[7] = compute_kernel(x,   0.46  , 0.15  , -0.9  , -0.14  , -0.12  , -0.7  , 0.78  , -0.13  , -1.3  , 0.23  , 0.19  , 0.15  , 0.2  , -0.24  , 0.03  , 0.56  , -0.18  , -0.15  , 0.57  , 0.39  , 0.18  , 0.39  , -0.12  , -0.2  , 0.85  , 0.04  , 0.07  , 0.25  , 0.05  , -0.09  , 0.9  , -0.1  , 0.06  , 0.67  , -0.09  , 0.14  , 0.46  , 0.16  , -0.18  , 0.98  , -0.26  , -0.11  , 0.84  , -0.59  , -0.14  , 0.13  , 0.26  , -0.03  , 0.6  , 0.39  , 0.47  , 0.01  , 0.6  , -0.22  , 0.3  , 0.11  , -0.05  , -0.11  , 0.0  , -0.08  , -0.0  , -0.08  , -0.18  , 1.02  , 0.22  , -0.0  , 0.46  , -0.12  , 0.15  , 0.55  , -0.04  , -0.19  , 0.53  , -0.04  , -0.02  , 0.63  , -0.01  , 0.07  , 0.55  , 0.03  , -0.07  , 0.52  , -0.02  , -0.07  , 0.58  , -0.0  , -0.04  , 0.58  , -0.01  , 0.01 );
                        kernels[8] = compute_kernel(x,   0.16  , -1.08  , -0.12  , -0.32  , -1.15  , -0.7  , -0.48  , -0.64  , -0.23  , -0.47  , -0.74  , -0.12  , -0.11  , -1.32  , -0.22  , 0.51  , -1.36  , -0.32  , 0.53  , -1.32  , -0.54  , 0.37  , -0.92  , -0.34  , 0.33  , -0.72  , 0.17  , 0.59  , -0.64  , 0.43  , 0.48  , -0.5  , 0.4  , 0.24  , -0.41  , 0.41  , 0.51  , -0.45  , 0.44  , 0.83  , -0.67  , 0.43  , 0.72  , -0.84  , 0.39  , 0.77  , -0.86  , 0.24  , 0.7  , -0.76  , 0.05  , 0.59  , -0.66  , 0.0  , 0.37  , -0.77  , -0.24  , 0.3  , -0.61  , -0.6  , 0.27  , -0.54  , -0.69  , 0.41  , -0.57  , -0.37  , 0.67  , -0.62  , 0.04  , 0.61  , -0.72  , 0.32  , 0.66  , -0.72  , 0.13  , 0.81  , -0.74  , 0.1  , 0.82  , -0.99  , 0.27  , 0.83  , -1.0  , 0.35  , 0.79  , -1.05  , -0.15  , 0.78  , -1.01  , -0.39 );
                        kernels[9] = compute_kernel(x,   0.7  , -1.19  , -0.05  , 0.68  , -1.24  , -0.66  , 0.9  , -1.0  , -0.41  , 1.35  , -0.64  , 0.09  , 1.13  , -0.38  , 0.54  , 1.12  , 0.24  , 0.79  , 1.3  , 0.01  , 0.4  , 1.46  , -0.4  , 0.11  , 1.31  , -0.03  , -0.03  , 0.82  , 0.43  , -0.23  , 0.68  , 0.51  , -0.57  , 0.82  , 0.19  , -0.96  , 1.04  , 0.34  , -0.48  , 1.3  , -0.11  , 0.11  , 1.75  , -0.03  , 0.69  , 1.89  , -0.19  , 0.83  , 1.91  , -0.28  , 0.51  , 1.82  , -0.29  , 0.9  , 1.89  , -0.33  , 0.65  , 1.78  , -0.58  , 0.02  , 1.62  , -0.71  , -0.38  , 1.73  , -0.79  , -0.71  , 1.5  , -0.54  , -0.46  , 1.4  , -0.23  , -0.24  , 1.36  , -0.32  , -0.01  , 1.69  , -0.64  , 0.27  , 2.09  , -0.81  , 0.21  , 1.74  , -0.53  , 0.32  , 1.55  , -0.41  , 0.18  , 1.49  , -0.49  , -0.1 );
                        kernels[10] = compute_kernel(x,   -0.0  , 0.18  , -0.34  , 0.31  , -0.03  , -0.32  , 0.45  , -0.38  , -0.16  , 0.18  , -0.05  , -0.42  , -0.22  , 0.41  , -0.26  , -0.13  , 0.35  , -0.08  , 0.31  , 0.23  , 0.19  , 0.69  , -0.15  , 0.2  , 0.72  , -0.31  , 0.44  , 0.79  , -0.36  , 0.32  , 0.62  , -0.14  , 0.16  , 0.26  , 0.16  , 0.17  , 0.15  , 0.15  , 0.38  , 0.29  , 0.13  , 0.16  , 0.29  , -0.06  , -0.13  , 0.34  , 0.07  , 0.02  , 0.34  , 0.04  , 0.34  , 0.38  , -0.05  , 0.33  , 0.15  , 0.07  , -0.09  , -0.17  , 0.22  , -0.28  , 0.08  , -0.03  , -0.43  , 0.25  , -0.29  , -0.43  , 0.2  , -0.29  , -0.27  , 0.18  , -0.3  , -0.36  , 0.02  , -0.11  , -0.07  , 0.14  , 0.03  , -0.02  , 0.28  , 0.0  , 0.05  , 0.34  , -0.25  , 0.06  , 0.26  , -0.53  , 0.01  , 0.37  , -0.28  , -0.35 );
                        kernels[11] = compute_kernel(x,   0.98  , 0.75  , 0.91  , 0.16  , 1.81  , 0.75  , 0.32  , 1.31  , 0.03  , 0.8  , -0.21  , -0.29  , 1.38  , 0.27  , -0.42  , 0.89  , 0.34  , -0.06  , 1.12  , -0.37  , -0.14  , 1.67  , -0.2  , -0.11  , 1.41  , -0.12  , 0.23  , 1.41  , 0.4  , -0.34  , 1.0  , 0.85  , -0.02  , 1.48  , 0.3  , -0.07  , 1.91  , -0.23  , -0.45  , 1.6  , 0.14  , -0.32  , 1.49  , 0.38  , 0.05  , 1.91  , 0.62  , 0.89  , 1.75  , 0.52  , 1.15  , 1.99  , 0.64  , 0.26  , 1.53  , 0.73  , -0.53  , 1.79  , 0.64  , -0.53  , 2.13  , -0.17  , 0.12  , 2.59  , -0.58  , 0.15  , 2.48  , -0.08  , 0.61  , 2.05  , 0.8  , 0.52  , 1.81  , 0.85  , -0.01  , 1.75  , 0.09  , 0.05  , 1.93  , 0.37  , -0.17  , 1.49  , 0.86  , -0.27  , 1.51  , 0.74  , -0.17  , 1.94  , 0.12  , -0.11 );
                        kernels[12] = compute_kernel(x,   1.4  , 0.2  , -0.09  , 1.56  , 0.33  , 0.23  , 1.81  , 0.65  , 0.43  , 1.48  , 0.84  , -0.3  , 0.98  , 0.75  , -1.0  , 1.14  , 0.76  , -0.74  , 1.26  , 0.77  , 0.24  , 1.48  , 0.39  , 0.57  , 1.68  , 0.06  , 0.59  , 1.81  , -0.37  , 0.22  , 1.72  , 0.04  , 0.09  , 1.35  , 0.68  , 0.08  , 1.24  , 0.56  , -0.41  , 1.19  , 0.43  , -0.68  , 1.27  , 0.4  , -0.54  , 1.37  , 0.33  , -0.19  , 1.53  , 0.08  , -0.14  , 1.41  , 0.59  , -0.02  , 1.06  , 1.55  , 0.26  , 1.0  , 1.33  , 0.16  , 1.13  , 0.49  , -0.04  , 1.37  , 0.2  , 0.22  , 1.48  , -0.02  , 0.41  , 1.36  , -0.02  , 0.3  , 1.36  , 0.04  , 0.34  , 1.16  , 0.37  , 0.18  , 1.06  , 0.35  , -0.31  , 0.85  , 0.63  , -0.46  , 0.79  , 0.97  , -0.06  , 1.13  , 0.36  , -0.26 );
                        kernels[13] = compute_kernel(x,   -6.27  , 0.58  , 3.46  , -6.22  , 0.49  , 3.32  , -6.3  , 0.45  , 2.52  , -6.48  , 0.54  , 2.49  , -6.51  , 0.4  , 3.1  , -6.66  , 0.35  , 2.56  , -6.56  , 0.2  , 2.68  , -6.46  , 0.31  , 3.08  , -6.14  , 0.31  , 3.44  , -6.26  , 0.44  , 2.95  , -6.25  , 0.51  , 1.97  , -6.46  , 0.39  , 2.07  , -6.39  , 0.3  , 3.17  , -6.12  , 0.5  , 2.9  , -6.26  , 0.38  , 0.57  , -6.56  , 0.53  , 0.3  , -5.54  , 0.35  , 2.85  , -4.91  , 0.45  , 3.08  , -5.04  , 0.22  , 2.77  , -4.62  , 0.27  , 1.9  , -4.6  , 0.12  , 1.7  , -4.61  , 0.0  , 1.95  , -4.35  , -0.02  , 1.45  , -4.21  , -0.04  , -0.36  , -5.08  , 0.81  , -2.31  , -4.39  , -0.19  , -0.53  , -3.08  , -0.16  , 0.91  , -2.46  , 0.49  , 1.86  , -1.63  , -0.02  , 1.92  , -1.06  , -0.09  , 0.97 );
                        kernels[14] = compute_kernel(x,   -7.74  , -1.19  , 7.56  , -6.89  , -0.33  , 4.52  , -6.05  , -1.61  , 2.46  , -5.82  , -1.2  , 1.46  , -6.9  , 0.49  , 0.87  , -4.84  , -0.73  , 0.96  , -3.99  , -0.74  , 1.24  , -4.31  , -0.14  , 0.7  , -3.04  , -0.44  , 1.52  , -1.58  , -0.42  , 1.35  , -1.3  , -0.35  , 0.51  , -0.72  , -0.23  , 0.79  , 0.4  , -0.62  , 0.57  , 0.03  , -0.19  , -0.66  , 0.46  , -0.17  , 0.52  , 1.93  , -0.31  , 1.53  , 1.79  , -0.3  , 0.82  , 1.76  , -0.08  , 0.73  , 2.11  , -0.36  , 0.09  , 2.3  , -0.08  , 0.49  , 2.32  , 0.13  , 1.16  , 2.89  , 0.01  , 2.3  , 2.55  , -0.18  , 0.7  , 2.18  , -0.06  , -0.34  , 2.02  , -0.09  , -0.79  , 2.3  , -0.24  , -0.14  , 2.11  , -0.04  , -0.06  , 2.22  , -0.2  , -0.56  , 2.56  , -0.33  , 0.48  , 2.64  , -0.24  , 0.9 );
                        kernels[15] = compute_kernel(x,   -8.84  , -0.79  , 4.66  , -8.89  , -1.1  , 5.12  , -9.02  , -1.05  , 4.82  , -9.05  , -1.11  , 6.11  , -8.39  , -0.76  , 7.58  , -8.61  , -1.25  , 7.35  , -8.94  , -1.21  , 6.15  , -8.85  , -1.23  , 6.26  , -8.68  , -0.73  , 9.46  , -8.77  , -1.23  , 7.64  , -9.29  , -1.36  , 5.36  , -9.37  , -1.24  , 5.07  , -9.27  , -0.96  , 6.41  , -9.29  , -1.35  , 8.39  , -9.09  , -1.0  , 8.41  , -8.81  , -1.03  , 7.09  , -8.73  , -0.88  , 5.79  , -9.01  , -1.33  , 5.99  , -9.06  , -0.93  , 5.21  , -8.62  , -0.79  , 5.52  , -8.88  , -1.18  , 5.36  , -8.77  , -1.29  , 4.71  , -8.37  , -0.93  , 5.31  , -7.67  , -1.02  , 5.25  , -7.44  , -1.32  , 4.23  , -7.13  , -0.99  , 4.16  , -6.6  , -1.22  , 3.88  , -6.57  , -1.18  , 2.88  , -6.24  , -0.97  , 2.26  , -5.88  , -1.0  , 2.65 );
                        kernels[16] = compute_kernel(x,   0.44  , -8.4  , 4.36  , 0.42  , -8.07  , 4.01  , 0.24  , -7.88  , 3.89  , -0.11  , -7.66  , 3.54  , -0.17  , -7.36  , 2.8  , -0.41  , -7.02  , 2.35  , -0.46  , -6.63  , 1.9  , -0.54  , -6.09  , 1.77  , -0.38  , -5.56  , 1.7  , -0.48  , -4.46  , 1.45  , -0.53  , -4.39  , 0.73  , -0.78  , -3.63  , 0.54  , -0.54  , -3.22  , 1.24  , -0.17  , -3.14  , 0.46  , -0.27  , -2.46  , 0.22  , -0.08  , -2.16  , 0.59  , 0.03  , -1.82  , 0.46  , 0.14  , -1.53  , 0.04  , 0.17  , -1.48  , -0.2  , 0.29  , -1.1  , 0.19  , 0.52  , -0.71  , 0.88  , 0.66  , -0.74  , 0.89  , 0.64  , -0.4  , 0.46  , 0.75  , -0.4  , 0.7  , 0.76  , -0.11  , 0.91  , 0.61  , -0.26  , 0.58  , 0.44  , -0.45  , 0.14  , 0.16  , -0.48  , -0.26  , 0.02  , -0.48  , -0.6  , -0.01  , -0.34  , -0.61 );
                        kernels[17] = compute_kernel(x,   -0.99  , -7.83  , 3.56  , -0.98  , -7.62  , 3.4  , -0.76  , -7.18  , 2.2  , -0.93  , -6.26  , 1.58  , -1.04  , -5.79  , 1.57  , -1.1  , -5.6  , 1.72  , -0.92  , -5.15  , 1.36  , -1.18  , -4.26  , 0.94  , -1.3  , -3.46  , 1.46  , -0.89  , -3.53  , 0.93  , -0.64  , -3.54  , -0.51  , -0.78  , -2.34  , -0.09  , -0.09  , -1.61  , 0.39  , 0.23  , -1.4  , 0.4  , 0.22  , -1.26  , 1.4  , 0.4  , -0.98  , 1.55  , 0.58  , -0.63  , 0.48  , 0.35  , -0.78  , 0.32  , 0.35  , -0.68  , 0.43  , 0.16  , -0.46  , 0.32  , 0.15  , -0.28  , 0.23  , -0.02  , -0.34  , -0.14  , -0.11  , -0.16  , -0.74  , -0.15  , -0.12  , -0.45  , -0.07  , -0.08  , 0.31  , 0.01  , 0.03  , 0.0  , -0.12  , 0.1  , -0.06  , 0.01  , 0.13  , 0.06  , 0.04  , -0.14  , 0.1  , 0.04  , 0.04  , 0.28 );
                        kernels[18] = compute_kernel(x,   -2.55  , -1.21  , -6.71  , -2.07  , -1.88  , -6.1  , -4.99  , 0.46  , -1.63  , -3.92  , 2.55  , 1.4  , -0.17  , 0.59  , 1.86  , 2.51  , -1.28  , -0.07  , 2.87  , -0.86  , 1.59  , 3.17  , 1.34  , 4.13  , 4.16  , 0.83  , 5.01  , 5.05  , -0.11  , 6.05  , 5.78  , -0.25  , 6.08  , 5.47  , -1.56  , 5.81  , 5.49  , -1.84  , 5.32  , 4.53  , -3.42  , 6.24  , 4.32  , -2.75  , 4.98  , 2.39  , -4.27  , 4.84  , 1.22  , -5.87  , 2.68  , 1.76  , -6.07  , 1.57  , 1.93  , -6.28  , 1.4  , 0.04  , -7.98  , 1.29  , -0.89  , -7.76  , -0.36  , -0.64  , -7.06  , -0.03  , -0.27  , -5.68  , 2.29  , -1.03  , -7.09  , 1.97  , -2.43  , -8.02  , 0.85  , -2.66  , -8.44  , 2.29  , -1.12  , -7.37  , 3.13  , -0.22  , -7.56  , 2.03  , -0.19  , -7.7  , 1.59  , -1.05  , -7.38  , 3.29 );
                        kernels[19] = compute_kernel(x,   0.02  , 0.04  , 0.04  , -0.09  , 0.07  , 0.0  , -0.01  , 0.11  , 0.11  , 0.13  , -0.01  , -0.09  , 0.05  , 0.25  , 0.31  , -0.12  , 0.26  , 0.0  , -0.13  , 0.18  , 0.15  , 0.07  , 0.05  , 0.03  , -0.04  , 0.07  , 0.02  , 0.0  , 0.17  , 0.08  , -0.15  , 0.22  , 0.15  , -0.11  , 0.11  , -0.07  , -0.28  , 0.41  , 0.01  , -0.15  , 0.78  , 0.28  , -0.14  , 0.48  , -0.2  , -1.3  , 0.92  , -0.32  , -2.24  , 0.68  , 0.34  , -2.76  , 1.57  , -1.19  , -3.19  , 2.46  , -0.83  , -3.7  , 1.62  , -0.02  , -3.6  , 1.99  , 0.97  , -2.4  , 1.45  , 0.48  , -1.79  , 1.34  , 0.91  , -0.8  , 1.08  , 1.06  , 0.5  , 0.89  , 1.36  , 2.34  , 1.16  , 1.93  , 3.84  , -0.39  , 0.28  , 3.52  , -2.56  , -1.13  , 3.65  , -3.08  , -1.93  , 5.33  , -3.01  , -2.31 );
                        kernels[20] = compute_kernel(x,   -4.01  , 0.05  , -1.91  , -3.29  , 0.41  , -2.02  , -3.38  , 0.3  , -0.62  , -4.45  , -1.27  , 0.2  , -4.92  , -1.59  , -0.67  , -4.13  , -0.8  , -0.14  , -3.18  , -0.63  , 0.32  , -3.19  , -0.83  , 0.23  , -1.9  , -0.61  , -0.21  , -0.24  , -0.44  , 0.94  , 0.93  , 0.29  , -0.11  , 2.2  , 0.76  , 0.11  , 3.38  , 0.91  , 1.16  , 4.06  , 0.5  , -0.07  , 4.93  , 0.52  , -1.32  , 5.37  , 0.72  , 0.49  , 6.33  , 1.17  , 0.87  , 5.82  , 0.05  , -0.15  , 3.07  , -0.44  , -1.08  , 2.66  , -0.6  , -1.32  , 3.01  , -0.83  , -0.39  , 3.13  , 0.84  , 1.46  , 3.9  , 0.97  , 2.53  , 1.63  , 0.24  , 2.1  , -0.33  , 1.64  , 0.92  , -0.58  , -0.25  , 0.1  , -3.78  , -0.31  , 0.42  , -4.22  , 0.04  , -1.28  , -5.2  , -1.13  , -2.77  , -6.0  , -0.54  , -1.98 );
                        kernels[21] = compute_kernel(x,   1.41  , 1.06  , 0.23  , 3.17  , 1.47  , 0.68  , 3.39  , 1.18  , 0.95  , 4.0  , -0.24  , 0.59  , 4.48  , -0.87  , -0.2  , 6.14  , -0.23  , -0.17  , 6.44  , 0.68  , -0.24  , 5.81  , 0.59  , -0.45  , 6.06  , 0.61  , -0.53  , 5.12  , 0.06  , -1.73  , 3.33  , -0.97  , -0.99  , 2.0  , -0.59  , 1.13  , 2.03  , 0.64  , 3.1  , 1.06  , -0.05  , 3.56  , -2.62  , 0.42  , 2.02  , -1.79  , 2.11  , -2.53  , -2.43  , 1.23  , -0.35  , -4.74  , 0.71  , -1.15  , -6.23  , -0.71  , -3.03  , -6.32  , -2.56  , -1.49  , -5.41  , -1.56  , 0.27  , -3.7  , 0.07  , 2.24  , -3.61  , 0.13  , -0.2  , -3.94  , -0.72  , -0.84  , -3.49  , -0.33  , -0.83  , -2.77  , 0.47  , -1.89  , -0.97  , 0.18  , -0.67  , 0.72  , -0.17  , 1.64  , 2.59  , -0.26  , 1.56  , 3.03  , -0.86  , 1.09 );
                        kernels[22] = compute_kernel(x,   6.15  , 0.54  , -0.88  , 5.59  , 0.46  , -0.77  , 3.71  , -1.21  , 0.29  , 1.89  , -1.94  , 0.56  , 1.37  , -0.48  , 1.53  , 0.85  , -0.11  , 1.05  , -0.94  , -0.54  , -0.91  , -2.48  , -0.59  , 0.04  , -3.28  , -0.6  , -0.1  , -3.62  , 0.0  , -0.76  , -4.53  , -0.16  , 0.14  , -5.4  , -2.27  , -1.54  , -6.55  , -2.69  , -1.96  , -5.3  , -1.91  , -0.88  , -3.67  , -0.3  , 0.15  , -2.53  , -0.24  , 0.62  , -2.19  , -1.03  , 0.36  , -1.92  , -1.76  , -0.33  , -0.65  , -0.83  , 0.52  , 1.59  , -0.31  , 0.78  , 2.38  , -0.61  , 2.29  , 2.75  , -0.46  , 0.95  , 3.41  , -0.51  , 0.5  , 3.83  , -0.54  , 0.94  , 4.24  , -0.12  , -0.49  , 4.24  , 0.32  , -0.54  , 3.64  , 0.1  , -0.73  , 4.09  , 0.32  , -1.49  , 4.79  , 0.53  , -1.72  , 5.6  , 0.85  , -1.04 );
                        kernels[23] = compute_kernel(x,   -0.34  , 0.86  , -0.23  , -2.8  , 0.44  , -0.84  , -4.62  , -1.13  , 0.19  , -6.37  , -0.77  , 0.3  , -6.93  , -1.25  , -0.91  , -7.48  , -1.89  , -1.0  , -5.34  , 1.13  , -0.18  , -2.8  , 2.53  , 0.74  , -2.3  , 0.45  , 0.22  , -4.38  , -1.58  , -0.65  , -5.09  , -2.59  , -0.95  , -3.28  , -0.7  , -0.13  , -0.65  , 0.21  , 0.93  , -0.06  , 0.36  , 0.84  , 0.61  , -0.28  , 1.01  , 2.24  , -0.29  , 1.24  , 2.71  , -0.51  , 0.53  , 2.85  , -1.14  , 0.25  , 3.29  , -1.63  , -0.09  , 4.39  , -0.97  , -0.58  , 5.13  , 0.06  , -1.33  , 5.35  , 0.62  , -1.38  , 5.39  , 0.15  , -0.97  , 5.16  , 0.24  , -1.16  , 4.93  , 0.38  , -0.89  , 3.78  , 0.66  , -0.22  , 1.75  , 0.19  , 1.73  , 0.32  , -0.27  , 1.66  , -0.52  , 0.04  , -0.96  , -2.41  , 0.0  , 1.08 );
                        kernels[24] = compute_kernel(x,   -3.83  , 0.09  , -0.02  , -3.18  , -0.38  , 0.91  , -1.85  , -0.53  , 2.4  , -0.57  , -0.38  , 1.43  , 0.53  , -0.1  , 0.25  , 1.74  , 0.84  , -0.99  , 2.83  , 0.09  , -0.25  , 3.66  , 0.22  , 0.8  , 3.89  , 1.16  , 0.46  , 3.58  , 1.05  , 0.31  , 1.94  , -0.28  , -0.23  , 1.77  , -1.24  , -0.7  , 2.99  , -1.27  , -0.65  , 5.08  , -0.21  , -1.67  , 5.88  , 0.58  , -2.28  , 4.53  , 0.17  , -1.79  , 2.56  , -1.39  , -0.14  , 1.76  , -0.79  , 1.06  , 1.74  , -0.15  , 1.33  , 0.26  , -0.6  , 0.82  , -0.45  , -0.08  , 0.92  , -0.85  , 0.78  , 2.84  , -2.72  , -0.46  , -0.02  , -4.87  , -1.62  , -0.7  , -6.11  , -2.21  , 0.66  , -6.67  , -2.91  , -2.17  , -6.05  , -1.54  , -0.61  , -3.96  , -0.06  , 0.82  , -3.11  , 0.33  , -0.51  , -2.84  , -0.89  , -1.32 );
                        kernels[25] = compute_kernel(x,   3.93  , -1.11  , -0.9  , 5.76  , 0.34  , -0.28  , 6.75  , 0.36  , 0.5  , 5.61  , 0.53  , -1.4  , 3.65  , -0.92  , -2.19  , 2.18  , -1.81  , -0.41  , 0.73  , -2.73  , -0.27  , -0.23  , -1.61  , -1.29  , -1.71  , 0.32  , 0.44  , -0.42  , 2.17  , 2.38  , -3.12  , -0.46  , -0.67  , -6.85  , -1.47  , -1.8  , -6.14  , -1.88  , 1.23  , -5.13  , -1.81  , 0.69  , -6.02  , -0.5  , -0.98  , -4.99  , -0.42  , 1.51  , -4.13  , -0.71  , 0.57  , -3.57  , -0.37  , -2.16  , -1.64  , 0.08  , -0.76  , 1.08  , 1.45  , 0.68  , 3.13  , -0.18  , 0.78  , 2.88  , 0.19  , 2.05  , 3.36  , -0.05  , 1.22  , 1.8  , -2.22  , -0.85  , 0.12  , -2.27  , -0.79  , 1.88  , -1.98  , -1.71  , 3.17  , -1.25  , -1.49  , 1.58  , 0.21  , 0.41  , 1.31  , -1.48  , 2.95  , 1.73  , -2.4  , 1.11 );
                        kernels[26] = compute_kernel(x,   -1.92  , -0.48  , 0.35  , 0.19  , 0.56  , 2.54  , 2.08  , -0.28  , 3.53  , 3.12  , -1.29  , 3.06  , 2.33  , -1.16  , 1.98  , 2.86  , -1.32  , 0.06  , 2.82  , -1.41  , -0.27  , 2.72  , -1.63  , -0.03  , 4.23  , -0.93  , 1.44  , 5.27  , -1.83  , 0.61  , 4.74  , -2.55  , -0.51  , 3.89  , -2.25  , -0.24  , 3.02  , -2.42  , -0.85  , 2.89  , 0.85  , -1.87  , 2.05  , -0.17  , -1.01  , -0.49  , -0.41  , 0.74  , -1.72  , -0.45  , 0.82  , -2.01  , -0.39  , 0.71  , -2.23  , -0.09  , -0.34  , -3.73  , -1.81  , -1.68  , -4.28  , -1.28  , 0.29  , -3.13  , -1.86  , 1.04  , -4.01  , -1.17  , -0.28  , -4.18  , -1.22  , 0.06  , -0.44  , 2.96  , 2.48  , -2.34  , -1.36  , 3.23  , 0.34  , 2.37  , -1.26  , -0.01  , -0.51  , -0.29  , -0.12  , -2.16  , 0.87  , 0.99  , -0.42  , -2.48 );
                        kernels[27] = compute_kernel(x,   -0.32  , -1.58  , -0.31  , 0.39  , 0.48  , 2.07  , -0.03  , 0.57  , -1.83  , -2.75  , -0.95  , -3.94  , -4.48  , 0.44  , -2.17  , -3.64  , 0.68  , 0.9  , -2.99  , -1.53  , 0.41  , -2.77  , -1.11  , 0.58  , -2.68  , -1.1  , 1.19  , -2.76  , -1.24  , 0.8  , -2.79  , -0.9  , -2.29  , -3.04  , -0.0  , -2.66  , -1.64  , -0.4  , -0.42  , 0.07  , -0.34  , -0.65  , 1.08  , 0.24  , 0.79  , 1.39  , -0.5  , 2.02  , 2.41  , -0.09  , 0.01  , 3.27  , 0.25  , 0.42  , 4.62  , 1.44  , 1.5  , 5.07  , 0.91  , 0.74  , 5.3  , 0.14  , 0.77  , 6.0  , 0.59  , 0.85  , 6.68  , 1.65  , 0.41  , 5.76  , 1.99  , 0.4  , 4.73  , 2.06  , -0.21  , 3.34  , 0.52  , -0.87  , 3.08  , 0.25  , -0.72  , 0.15  , -0.04  , -1.61  , -1.24  , -0.01  , -0.73  , -0.56  , -0.78  , 2.39 );
                        kernels[28] = compute_kernel(x,   -2.07  , 0.55  , -0.05  , -1.42  , 0.23  , 0.14  , -0.58  , 0.3  , -0.86  , 1.02  , 0.71  , -1.29  , 2.18  , 0.92  , 0.09  , 3.69  , 0.43  , 1.37  , 4.84  , -0.29  , 2.23  , 4.73  , 0.23  , 1.21  , 5.83  , 0.3  , 0.08  , 6.6  , 0.69  , 0.56  , 7.93  , 1.47  , 0.15  , 7.3  , 0.81  , 0.84  , 6.77  , 1.74  , -0.05  , 5.64  , 1.28  , -1.67  , 2.91  , -0.0  , -1.36  , 0.69  , 1.0  , -0.84  , -0.77  , -0.1  , -0.76  , -1.51  , -0.35  , -0.15  , -1.58  , 1.11  , 1.43  , -2.19  , 2.06  , 1.25  , -3.51  , -0.07  , -1.62  , -4.12  , 0.17  , -2.03  , -3.65  , 0.29  , 1.52  , -4.08  , -0.07  , 1.85  , -4.42  , -1.42  , -0.2  , -5.34  , -1.48  , -1.08  , -3.59  , 0.36  , -1.69  , -1.31  , 0.4  , 0.02  , -1.16  , -0.2  , 1.62  , 0.43  , 0.85  , 0.0 );
                        kernels[29] = compute_kernel(x,   6.78  , 0.38  , 0.39  , 5.14  , 0.29  , -0.14  , 3.63  , 0.92  , 1.3  , 1.68  , 0.21  , 2.12  , -0.61  , -0.29  , 0.91  , -2.02  , 0.66  , -0.28  , -1.34  , 0.49  , 0.75  , -1.58  , 1.36  , 0.01  , -1.64  , 1.21  , -2.27  , -2.41  , 1.03  , -2.2  , -3.6  , 0.52  , -0.52  , -3.54  , 0.32  , 0.44  , -3.58  , -0.32  , -1.53  , -3.66  , -0.43  , -1.1  , -2.62  , 0.24  , 0.03  , -1.85  , 0.72  , -0.13  , -1.1  , 0.56  , -0.04  , 0.23  , 0.52  , 0.03  , 2.03  , 0.69  , -0.93  , 3.71  , 0.5  , 0.53  , 4.78  , 0.48  , 1.28  , 5.37  , 0.73  , 0.68  , 6.18  , 0.74  , 0.42  , 6.36  , 0.99  , 1.34  , 7.5  , 0.87  , 1.22  , 7.67  , 1.02  , 1.53  , 7.22  , 1.11  , 1.48  , 6.06  , 0.62  , -1.36  , 4.63  , 0.29  , -3.08  , 2.53  , -0.26  , -1.03 );
                        kernels[30] = compute_kernel(x,   3.93  , -1.11  , -0.9  , 5.76  , 0.34  , -0.28  , 6.75  , 0.36  , 0.5  , 5.61  , 0.53  , -1.4  , 3.65  , -0.92  , -2.19  , 2.18  , -1.81  , -0.41  , 0.73  , -2.73  , -0.27  , -0.23  , -1.61  , -1.29  , -1.71  , 0.32  , 0.44  , -0.42  , 2.17  , 2.38  , -3.12  , -0.46  , -0.67  , -6.85  , -1.47  , -1.8  , -6.14  , -1.88  , 1.23  , -5.13  , -1.81  , 0.69  , -6.02  , -0.5  , -0.98  , -4.99  , -0.42  , 1.51  , -4.13  , -0.71  , 0.57  , -3.57  , -0.37  , -2.16  , -1.64  , 0.08  , -0.76  , 1.08  , 1.45  , 0.68  , 3.13  , -0.18  , 0.78  , 2.88  , 0.19  , 2.05  , 3.36  , -0.05  , 1.22  , 1.8  , -2.22  , -0.85  , 0.12  , -2.27  , -0.79  , 1.88  , -1.98  , -1.71  , 3.17  , -1.25  , -1.49  , 1.58  , 0.21  , 0.41  , 1.31  , -1.48  , 2.95  , 1.73  , -2.4  , 1.11 );
                        kernels[31] = compute_kernel(x,   -0.34  , 0.86  , -0.23  , -2.8  , 0.44  , -0.84  , -4.62  , -1.13  , 0.19  , -6.37  , -0.77  , 0.3  , -6.93  , -1.25  , -0.91  , -7.48  , -1.89  , -1.0  , -5.34  , 1.13  , -0.18  , -2.8  , 2.53  , 0.74  , -2.3  , 0.45  , 0.22  , -4.38  , -1.58  , -0.65  , -5.09  , -2.59  , -0.95  , -3.28  , -0.7  , -0.13  , -0.65  , 0.21  , 0.93  , -0.06  , 0.36  , 0.84  , 0.61  , -0.28  , 1.01  , 2.24  , -0.29  , 1.24  , 2.71  , -0.51  , 0.53  , 2.85  , -1.14  , 0.25  , 3.29  , -1.63  , -0.09  , 4.39  , -0.97  , -0.58  , 5.13  , 0.06  , -1.33  , 5.35  , 0.62  , -1.38  , 5.39  , 0.15  , -0.97  , 5.16  , 0.24  , -1.16  , 4.93  , 0.38  , -0.89  , 3.78  , 0.66  , -0.22  , 1.75  , 0.19  , 1.73  , 0.32  , -0.27  , 1.66  , -0.52  , 0.04  , -0.96  , -2.41  , 0.0  , 1.08 );
                        kernels[32] = compute_kernel(x,   -1.92  , -0.48  , 0.35  , 0.19  , 0.56  , 2.54  , 2.08  , -0.28  , 3.53  , 3.12  , -1.29  , 3.06  , 2.33  , -1.16  , 1.98  , 2.86  , -1.32  , 0.06  , 2.82  , -1.41  , -0.27  , 2.72  , -1.63  , -0.03  , 4.23  , -0.93  , 1.44  , 5.27  , -1.83  , 0.61  , 4.74  , -2.55  , -0.51  , 3.89  , -2.25  , -0.24  , 3.02  , -2.42  , -0.85  , 2.89  , 0.85  , -1.87  , 2.05  , -0.17  , -1.01  , -0.49  , -0.41  , 0.74  , -1.72  , -0.45  , 0.82  , -2.01  , -0.39  , 0.71  , -2.23  , -0.09  , -0.34  , -3.73  , -1.81  , -1.68  , -4.28  , -1.28  , 0.29  , -3.13  , -1.86  , 1.04  , -4.01  , -1.17  , -0.28  , -4.18  , -1.22  , 0.06  , -0.44  , 2.96  , 2.48  , -2.34  , -1.36  , 3.23  , 0.34  , 2.37  , -1.26  , -0.01  , -0.51  , -0.29  , -0.12  , -2.16  , 0.87  , 0.99  , -0.42  , -2.48 );
                        kernels[33] = compute_kernel(x,   0.22  , 0.11  , 11.16  , 0.22  , 0.11  , 11.16  , 0.22  , 0.11  , 11.16  , 0.22  , 0.11  , 11.16  , 0.22  , 0.11  , 11.16  , 0.22  , 0.11  , 11.16  , 0.22  , 0.11  , 11.16  , 0.22  , 0.11  , 11.16  , 0.22  , 0.11  , 11.16  , 0.22  , 0.11  , 11.16  , 0.22  , 0.11  , 11.16  , 0.22  , 0.11  , 11.16  , 0.22  , 0.11  , 11.16  , 0.22  , 0.11  , 11.16  , 0.22  , 0.11  , 11.16  , 0.22  , 0.11  , 11.16  , 0.22  , 0.11  , 11.16  , 0.22  , 0.11  , 11.16  , 0.22  , 0.11  , 11.16  , 0.22  , 0.11  , 11.16  , 0.22  , 0.11  , 11.16  , 0.22  , 0.11  , 11.16  , 0.22  , 0.11  , 11.16  , 0.22  , 0.11  , 11.16  , 0.22  , 0.11  , 11.16  , 0.22  , 0.11  , 11.16  , 0.22  , 0.11  , 11.16  , 0.22  , 0.11  , 11.16  , 0.22  , 0.11  , 11.16  , 0.22  , 0.11  , 11.16 );
                        kernels[34] = compute_kernel(x,   -0.32  , -1.58  , -0.31  , 0.39  , 0.48  , 2.07  , -0.03  , 0.57  , -1.83  , -2.75  , -0.95  , -3.94  , -4.48  , 0.44  , -2.17  , -3.64  , 0.68  , 0.9  , -2.99  , -1.53  , 0.41  , -2.77  , -1.11  , 0.58  , -2.68  , -1.1  , 1.19  , -2.76  , -1.24  , 0.8  , -2.79  , -0.9  , -2.29  , -3.04  , -0.0  , -2.66  , -1.64  , -0.4  , -0.42  , 0.07  , -0.34  , -0.65  , 1.08  , 0.24  , 0.79  , 1.39  , -0.5  , 2.02  , 2.41  , -0.09  , 0.01  , 3.27  , 0.25  , 0.42  , 4.62  , 1.44  , 1.5  , 5.07  , 0.91  , 0.74  , 5.3  , 0.14  , 0.77  , 6.0  , 0.59  , 0.85  , 6.68  , 1.65  , 0.41  , 5.76  , 1.99  , 0.4  , 4.73  , 2.06  , -0.21  , 3.34  , 0.52  , -0.87  , 3.08  , 0.25  , -0.72  , 0.15  , -0.04  , -1.61  , -1.24  , -0.01  , -0.73  , -0.56  , -0.78  , 2.39 );
                        kernels[35] = compute_kernel(x,   1.41  , 1.06  , 0.23  , 3.17  , 1.47  , 0.68  , 3.39  , 1.18  , 0.95  , 4.0  , -0.24  , 0.59  , 4.48  , -0.87  , -0.2  , 6.14  , -0.23  , -0.17  , 6.44  , 0.68  , -0.24  , 5.81  , 0.59  , -0.45  , 6.06  , 0.61  , -0.53  , 5.12  , 0.06  , -1.73  , 3.33  , -0.97  , -0.99  , 2.0  , -0.59  , 1.13  , 2.03  , 0.64  , 3.1  , 1.06  , -0.05  , 3.56  , -2.62  , 0.42  , 2.02  , -1.79  , 2.11  , -2.53  , -2.43  , 1.23  , -0.35  , -4.74  , 0.71  , -1.15  , -6.23  , -0.71  , -3.03  , -6.32  , -2.56  , -1.49  , -5.41  , -1.56  , 0.27  , -3.7  , 0.07  , 2.24  , -3.61  , 0.13  , -0.2  , -3.94  , -0.72  , -0.84  , -3.49  , -0.33  , -0.83  , -2.77  , 0.47  , -1.89  , -0.97  , 0.18  , -0.67  , 0.72  , -0.17  , 1.64  , 2.59  , -0.26  , 1.56  , 3.03  , -0.86  , 1.09 );
                        kernels[36] = compute_kernel(x,   -3.83  , 0.09  , -0.02  , -3.18  , -0.38  , 0.91  , -1.85  , -0.53  , 2.4  , -0.57  , -0.38  , 1.43  , 0.53  , -0.1  , 0.25  , 1.74  , 0.84  , -0.99  , 2.83  , 0.09  , -0.25  , 3.66  , 0.22  , 0.8  , 3.89  , 1.16  , 0.46  , 3.58  , 1.05  , 0.31  , 1.94  , -0.28  , -0.23  , 1.77  , -1.24  , -0.7  , 2.99  , -1.27  , -0.65  , 5.08  , -0.21  , -1.67  , 5.88  , 0.58  , -2.28  , 4.53  , 0.17  , -1.79  , 2.56  , -1.39  , -0.14  , 1.76  , -0.79  , 1.06  , 1.74  , -0.15  , 1.33  , 0.26  , -0.6  , 0.82  , -0.45  , -0.08  , 0.92  , -0.85  , 0.78  , 2.84  , -2.72  , -0.46  , -0.02  , -4.87  , -1.62  , -0.7  , -6.11  , -2.21  , 0.66  , -6.67  , -2.91  , -2.17  , -6.05  , -1.54  , -0.61  , -3.96  , -0.06  , 0.82  , -3.11  , 0.33  , -0.51  , -2.84  , -0.89  , -1.32 );
                        kernels[37] = compute_kernel(x,   -4.01  , 0.05  , -1.91  , -3.29  , 0.41  , -2.02  , -3.38  , 0.3  , -0.62  , -4.45  , -1.27  , 0.2  , -4.92  , -1.59  , -0.67  , -4.13  , -0.8  , -0.14  , -3.18  , -0.63  , 0.32  , -3.19  , -0.83  , 0.23  , -1.9  , -0.61  , -0.21  , -0.24  , -0.44  , 0.94  , 0.93  , 0.29  , -0.11  , 2.2  , 0.76  , 0.11  , 3.38  , 0.91  , 1.16  , 4.06  , 0.5  , -0.07  , 4.93  , 0.52  , -1.32  , 5.37  , 0.72  , 0.49  , 6.33  , 1.17  , 0.87  , 5.82  , 0.05  , -0.15  , 3.07  , -0.44  , -1.08  , 2.66  , -0.6  , -1.32  , 3.01  , -0.83  , -0.39  , 3.13  , 0.84  , 1.46  , 3.9  , 0.97  , 2.53  , 1.63  , 0.24  , 2.1  , -0.33  , 1.64  , 0.92  , -0.58  , -0.25  , 0.1  , -3.78  , -0.31  , 0.42  , -4.22  , 0.04  , -1.28  , -5.2  , -1.13  , -2.77  , -6.0  , -0.54  , -1.98 );
                        kernels[38] = compute_kernel(x,   -0.68  , 6.96  , 3.17  , -0.8  , 6.43  , 2.25  , -1.12  , 5.56  , 1.73  , -0.84  , 4.94  , 1.48  , -0.69  , 4.68  , 1.36  , -0.27  , 4.47  , 1.67  , -0.19  , 3.94  , 1.88  , -0.11  , 3.54  , 1.6  , 0.04  , 3.2  , 1.21  , 0.03  , 2.78  , 1.17  , -0.07  , 2.23  , 0.82  , -0.25  , 1.74  , 0.37  , -0.08  , 1.63  , 0.35  , 0.23  , 1.38  , 0.44  , 0.02  , 0.8  , -0.02  , 0.06  , 0.64  , -0.19  , 0.38  , 0.39  , 0.14  , 0.5  , 0.13  , 0.68  , 0.83  , -0.02  , 0.63  , 0.82  , -0.28  , 0.7  , 0.7  , -0.61  , 0.93  , 1.23  , -0.63  , 1.01  , 0.96  , -0.7  , 0.9  , 0.97  , -0.86  , 0.88  , 0.91  , -0.57  , 0.65  , 0.63  , -0.66  , 0.37  , 0.67  , -0.58  , -0.15  , 0.38  , -0.41  , -0.26  , 0.49  , -0.39  , 0.07  , 0.62  , -0.37  , 0.38 );
                        kernels[39] = compute_kernel(x,   2.15  , 5.26  , 3.49  , 2.03  , 6.05  , 3.14  , 1.39  , 6.32  , 2.72  , 1.22  , 5.61  , 2.02  , 1.12  , 5.46  , 3.42  , 1.44  , 6.37  , 3.95  , 0.75  , 7.39  , 3.47  , 1.17  , 7.39  , 2.61  , 1.15  , 7.47  , 3.88  , 1.11  , 7.86  , 4.97  , 0.43  , 8.43  , 2.61  , 0.86  , 8.26  , 2.61  , 0.93  , 8.2  , 4.34  , 0.6  , 8.55  , 5.11  , 0.77  , 8.56  , 5.08  , 0.88  , 8.84  , 3.62  , 0.58  , 9.13  , 3.74  , 0.59  , 8.55  , 4.74  , 0.05  , 8.46  , 4.79  , 0.6  , 8.48  , 5.54  , 0.82  , 8.08  , 3.32  , 0.8  , 7.34  , 4.05  , -0.26  , 7.71  , 5.08  , 1.36  , 8.38  , 7.23  , 1.22  , 8.88  , 5.4  , 0.47  , 8.8  , 3.71  , 0.71  , 9.12  , 4.51  , 0.61  , 8.83  , 4.52  , 0.82  , 8.46  , 4.09  , 0.37  , 7.91  , 4.67 );
                        kernels[40] = compute_kernel(x,   -0.52  , 6.94  , 2.49  , -0.17  , 5.96  , 2.04  , 0.0  , 5.52  , 1.95  , -0.05  , 5.34  , 2.9  , 0.06  , 4.51  , 2.49  , 0.01  , 4.11  , 1.86  , 0.11  , 3.9  , 2.14  , -0.32  , 3.93  , 1.0  , 0.14  , 2.68  , 0.63  , -0.03  , 3.01  , 0.09  , -0.45  , 2.44  , -0.06  , -0.21  , 1.78  , 0.4  , -0.34  , 1.6  , -0.03  , -0.29  , 1.13  , 0.04  , 0.01  , 0.6  , 0.37  , -0.01  , 0.61  , 0.36  , -0.05  , 0.4  , 0.39  , 0.58  , -0.52  , 1.18  , 0.5  , -0.21  , 0.53  , 0.25  , -0.84  , -0.18  , 0.37  , -1.19  , 0.79  , 0.46  , -1.18  , 1.0  , -0.08  , -1.31  , -0.12  , -0.33  , -1.64  , -0.26  , -0.27  , -1.62  , 0.36  , 0.09  , -1.38  , 0.39  , 0.22  , -0.85  , 0.38  , 0.04  , -0.54  , 0.06  , -0.06  , -0.88  , -0.15  , 0.03  , -0.46  , 1.2 );
                        kernels[41] = compute_kernel(x,   7.63  , -0.43  , 4.01  , 7.53  , -0.39  , 6.05  , 7.36  , -0.37  , 4.15  , 7.29  , -0.35  , 2.34  , 7.09  , -0.18  , 3.13  , 6.97  , -0.25  , 3.99  , 6.81  , -0.27  , 3.21  , 6.73  , -0.22  , 3.1  , 6.48  , -0.36  , 3.79  , 6.01  , -0.51  , 2.44  , 5.87  , -0.42  , 1.38  , 5.44  , -0.24  , 1.84  , 5.59  , -0.3  , 1.99  , 5.48  , -0.37  , 1.72  , 4.86  , -0.35  , 1.58  , 4.82  , -0.6  , 1.41  , 4.83  , -0.83  , 1.51  , 4.61  , -0.96  , 1.23  , 4.11  , -0.86  , 1.04  , 3.71  , -0.72  , 0.8  , 3.56  , -1.02  , -0.24  , 3.6  , -0.73  , 0.51  , 3.1  , -0.86  , 1.27  , 2.49  , -0.54  , 0.83  , 2.38  , -0.46  , -0.72  , 2.02  , -0.65  , 0.17  , 1.86  , -0.51  , 1.4  , 2.11  , -0.64  , -0.68  , 1.6  , -0.79  , -1.17  , 1.33  , -0.57  , 0.34 );
                        kernels[42] = compute_kernel(x,   6.51  , 0.5  , 3.3  , 6.66  , 0.53  , 2.8  , 6.73  , 0.54  , 3.75  , 7.42  , 0.75  , 4.53  , 7.73  , 0.64  , 5.13  , 8.07  , 0.56  , 6.41  , 8.62  , 0.72  , 5.93  , 8.54  , 0.56  , 6.97  , 8.71  , 0.34  , 5.83  , 8.51  , 0.36  , 6.96  , 8.53  , 0.06  , 6.49  , 9.14  , 0.21  , 7.28  , 9.18  , -0.08  , 7.32  , 9.16  , -0.08  , 7.27  , 9.37  , 0.2  , 7.54  , 9.14  , 0.16  , 7.06  , 8.91  , 0.45  , 7.43  , 8.96  , 0.71  , 7.21  , 8.77  , 0.6  , 7.52  , 8.57  , 0.44  , 7.89  , 8.57  , 0.36  , 7.86  , 9.15  , -0.09  , 6.59  , 9.06  , -0.04  , 7.75  , 8.48  , 0.35  , 6.64  , 8.27  , 0.17  , 3.12  , 8.4  , 0.11  , 5.69  , 8.62  , -0.44  , 5.52  , 8.81  , -0.27  , 3.85  , 8.5  , 0.44  , 5.38  , 8.23  , -0.07  , 7.34 );
                        kernels[43] = compute_kernel(x,   8.59  , 0.55  , 3.07  , 7.7  , 0.24  , 6.28  , 7.52  , 0.46  , 8.39  , 7.58  , 0.7  , 5.17  , 6.9  , 0.31  , 5.51  , 5.69  , 0.2  , 5.66  , 4.46  , -0.47  , 1.88  , 3.9  , -0.12  , 0.57  , 3.45  , -0.56  , 0.6  , 3.34  , -0.33  , -1.1  , 3.0  , -1.2  , -1.79  , 2.52  , -0.43  , 0.24  , 1.74  , -0.08  , -0.85  , 1.65  , -0.43  , -0.04  , 1.63  , 0.0  , 0.83  , 1.48  , 0.5  , -0.62  , 0.84  , 0.01  , -2.19  , 0.47  , 0.44  , -1.43  , 0.57  , 0.4  , -0.4  , 0.49  , 0.3  , -0.61  , 0.33  , 0.47  , -0.7  , 0.3  , 0.25  , 0.17  , 0.17  , 0.17  , -0.16  , -0.2  , 0.12  , -0.59  , 0.15  , 0.16  , -0.14  , 0.48  , 0.01  , 0.23  , 0.19  , 0.33  , -0.33  , -0.15  , 0.11  , -0.11  , 0.37  , 0.11  , -0.29  , 0.4  , 0.03  , 0.14 );
                        kernels[44] = compute_kernel(x,   5.97  , -1.58  , 2.78  , 6.95  , -1.4  , 3.11  , 7.31  , -1.37  , 2.66  , 6.97  , -1.52  , 4.04  , 7.35  , -1.53  , 4.46  , 7.71  , -1.18  , 5.48  , 8.01  , -0.94  , 6.74  , 8.36  , -1.14  , 5.32  , 8.59  , -1.23  , 7.83  , 8.92  , -0.62  , 7.93  , 8.71  , -0.29  , 7.05  , 8.7  , -0.02  , 7.16  , 8.84  , -0.31  , 7.34  , 8.49  , -0.18  , 7.58  , 8.45  , 0.01  , 6.32  , 9.01  , -0.04  , 7.32  , 8.98  , -0.08  , 7.92  , 8.27  , -0.09  , 8.08  , 8.31  , 0.4  , 5.64  , 8.47  , -0.14  , 6.72  , 7.67  , -0.01  , 6.81  , 8.0  , -0.31  , 3.75  , 9.05  , -1.41  , 5.51  , 8.62  , -0.83  , 7.96  , 7.7  , -0.85  , 2.1  , 6.52  , -1.27  , 3.17  , 6.17  , -0.7  , 4.83  , 6.53  , -0.55  , -0.21  , 5.78  , -1.17  , 2.67  , 6.09  , -0.43  , 1.81 );
                        kernels[45] = compute_kernel(x,   7.51  , -0.3  , 3.92  , 7.23  , -0.59  , 3.59  , 7.19  , -0.46  , 3.41  , 7.15  , -0.34  , 3.2  , 7.42  , -0.37  , 3.36  , 7.37  , -0.29  , 3.72  , 7.7  , -0.04  , 3.89  , 7.73  , -0.18  , 3.91  , 7.81  , -0.13  , 4.07  , 7.63  , -0.33  , 4.1  , 7.69  , -0.31  , 4.08  , 8.16  , -0.55  , 4.43  , 8.16  , -0.5  , 4.27  , 8.31  , -0.43  , 4.79  , 8.35  , -0.43  , 5.98  , 8.38  , -0.36  , 5.41  , 8.65  , -0.34  , 5.91  , 8.03  , -0.44  , 5.43  , 8.5  , -0.5  , 5.77  , 8.84  , -0.53  , 6.25  , 9.05  , -0.36  , 6.88  , 9.06  , -0.4  , 7.38  , 9.35  , -0.19  , 7.58  , 9.27  , -0.26  , 7.51  , 9.26  , -0.4  , 7.27  , 9.65  , -0.55  , 6.95  , 8.85  , -0.21  , 6.97  , 8.74  , -0.47  , 6.81  , 8.84  , -0.34  , 6.22  , 8.78  , -0.29  , 5.93 );
                        kernels[46] = compute_kernel(x,   6.46  , -0.56  , 3.67  , 7.12  , -0.31  , 3.99  , 7.44  , -0.25  , 4.0  , 7.54  , -0.14  , 4.83  , 7.48  , -0.38  , 5.27  , 7.15  , -0.68  , 3.75  , 6.9  , -0.49  , 3.07  , 6.59  , -0.61  , 3.29  , 6.77  , -0.6  , 3.83  , 6.7  , -0.42  , 3.16  , 6.18  , -0.41  , 2.57  , 5.84  , -0.4  , 1.98  , 5.31  , -0.3  , 1.31  , 4.9  , -0.49  , 0.5  , 4.97  , -0.47  , 0.72  , 4.88  , -0.5  , 1.58  , 5.06  , -0.6  , 2.17  , 5.06  , -0.51  , 2.13  , 4.77  , -0.43  , 1.77  , 4.29  , -0.45  , 1.36  , 3.85  , -0.52  , 1.11  , 3.43  , -0.56  , 0.57  , 2.99  , -0.51  , -0.12  , 2.56  , -0.58  , -0.46  , 2.54  , -0.53  , -0.25  , 2.61  , -0.43  , 0.4  , 2.74  , -0.61  , 0.73  , 2.75  , -0.52  , 0.94  , 2.76  , -0.62  , 0.96  , 2.23  , -0.63  , 1.01 );
                        decisions[0] = 1.054107437073
                        + kernels[3] * 0.004809050994
                        + kernels[13] * -0.001198001744
                        + kernels[14] * -0.00361104925
                        ;
                        decisions[1] = 1.38566176375
                        + kernels[8] * 0.008867954488
                        + kernels[17] * -0.006600780681
                        + kernels[18] * -0.002267173807
                        ;
                        decisions[2] = 0.944611795484
                        + kernels[0] * 0.0772545853
                        + kernels[1] * 0.116044920829
                        + kernels[2] * 0.021756228042
                        + kernels[4] * 0.005581206946
                        + kernels[5] * 0.000271839688
                        + kernels[7] * 0.021839673828
                        + kernels[8] * 0.00980242589
                        + kernels[10] * 0.023526863707
                        + kernels[11] * 0.021108830021
                        + kernels[19] * -0.018445072998
                        + kernels[20] * -0.002787283537
                        + kernels[21] * -0.003810348512
                        + kernels[22] * -0.036172671745
                        + kernels[23] * -0.00173167438
                        + kernels[24] * -0.001399729406
                        + kernels[25] * -0.000500530664
                        + kernels[26] * -0.000679474849
                        + kernels[27] * -0.000909763644
                        + kernels[28] * -0.058872783986
                        + kernels[29] * -0.022208521924
                        + kernels[30] * -0.013612839862
                        + kernels[31] * -0.03941167481
                        + kernels[32] * -0.014202428109
                        + kernels[34] * -0.020319877309
                        + kernels[35] * -0.022378841155
                        + kernels[36] * -0.018707195631
                        + kernels[37] * -0.021035861728
                        ;
                        decisions[3] = 1.07832048689
                        + kernels[4] * 0.003266841884
                        + kernels[6] * 0.004622058826
                        + kernels[38] * -0.006171316255
                        + kernels[40] * -0.001717584455
                        ;
                        decisions[4] = 1.262944928833
                        + kernels[5] * 0.001166522612
                        + kernels[9] * 5.1210459e-05
                        + kernels[12] * 0.002959821347
                        + kernels[41] * -0.000656239382
                        + kernels[43] * -0.003178851544
                        + kernels[46] * -0.000342463493
                        ;
                        decisions[5] = -0.254198009322
                        + kernels[14] * 0.003319229371
                        + kernels[15] * 0.000330154089
                        + kernels[17] * -0.003157788619
                        + kernels[18] * -0.000491594842
                        ;
                        decisions[6] = -1.194398554451
                        + kernels[13] * 0.001092838784
                        + kernels[14] * 0.007645421214
                        + kernels[19] * -0.001995022115
                        + kernels[31] * -0.004972170675
                        + kernels[33] * -0.000868165829
                        + kernels[36] * -0.000794842975
                        + kernels[37] * -0.000108058404
                        ;
                        decisions[7] = -0.241772318511
                        + kernels[13] * 0.000708119918
                        + kernels[14] * 0.002616268434
                        + kernels[38] * -0.003324388351
                        ;
                        decisions[8] = 0.120585771326
                        + kernels[14] * 0.001263801049
                        + kernels[43] * -0.001105316579
                        + kernels[44] * -2.94153e-05
                        + kernels[45] * -0.00012906917
                        ;
                        decisions[9] = -1.094400589785
                        + kernels[17] * 0.005950429671
                        + kernels[18] * 0.002020956649
                        + kernels[30] * -0.000735196979
                        + kernels[31] * -0.002260206816
                        + kernels[32] * -0.002939981962
                        + kernels[33] * -0.000650520679
                        + kernels[36] * -0.000985815299
                        + kernels[37] * -0.000399664585
                        ;
                        decisions[10] = -0.105226850444
                        + kernels[17] * 0.00127002022
                        + kernels[18] * 0.000820780484
                        + kernels[40] * -0.002090800705
                        ;
                        decisions[11] = 0.291052008401
                        + kernels[16] * 0.000704832754
                        + kernels[17] * 0.000875616626
                        + kernels[18] * 0.000502553683
                        + kernels[41] * -0.000418899883
                        + kernels[43] * -0.001430278655
                        + kernels[44] * -6.074036e-05
                        + kernels[46] * -0.000173084165
                        ;
                        decisions[12] = 0.98142961078
                        + kernels[19] * 0.00053641483
                        + kernels[28] * 0.001667169941
                        + kernels[29] * 0.002271466763
                        + kernels[31] * 0.001206641331
                        + kernels[33] * 0.000626245755
                        + kernels[35] * 0.000223309987
                        + kernels[36] * 0.001322193701
                        + kernels[38] * -0.006384480603
                        + kernels[39] * -4.4143801e-05
                        + kernels[40] * -0.001424817904
                        ;
                        decisions[13] = 1.373997267845
                        + kernels[28] * 0.000551856303
                        + kernels[29] * 0.001682229364
                        + kernels[32] * 0.001284015955
                        + kernels[33] * 0.000429664201
                        + kernels[35] * 0.001306262173
                        + kernels[43] * -0.00490581516
                        + kernels[45] * -0.000348212835
                        ;
                        decisions[14] = 0.427397473627
                        + kernels[39] * 0.000119434758
                        + kernels[40] * 0.002390623099
                        + kernels[42] * -6.9421819e-05
                        + kernels[43] * -0.002440636039
                        ;
                        votes[decisions[0] > 0 ? 0 : 1] += 1;
                        votes[decisions[1] > 0 ? 0 : 2] += 1;
                        votes[decisions[2] > 0 ? 0 : 3] += 1;
                        votes[decisions[3] > 0 ? 0 : 4] += 1;
                        votes[decisions[4] > 0 ? 0 : 5] += 1;
                        votes[decisions[5] > 0 ? 1 : 2] += 1;
                        votes[decisions[6] > 0 ? 1 : 3] += 1;
                        votes[decisions[7] > 0 ? 1 : 4] += 1;
                        votes[decisions[8] > 0 ? 1 : 5] += 1;
                        votes[decisions[9] > 0 ? 2 : 3] += 1;
                        votes[decisions[10] > 0 ? 2 : 4] += 1;
                        votes[decisions[11] > 0 ? 2 : 5] += 1;
                        votes[decisions[12] > 0 ? 3 : 4] += 1;
                        votes[decisions[13] > 0 ? 3 : 5] += 1;
                        votes[decisions[14] > 0 ? 4 : 5] += 1;
                        int val = votes[0];
                        int idx = 0;

                        for (int i = 1; i < 6; i++) {
                            if (votes[i] > val) {
                                val = votes[i];
                                idx = i;
                            }
                        }

                        return idx;
                    }

                    /**
                    * Predict readable class name
                    */
                    const char* predictLabel(float *x) {
                        return idxToLabel(predict(x));
                    }

                    /**
                    * Convert class idx to readable name
                    */
                    const char* idxToLabel(uint8_t classIdx) {
                        switch (classIdx) {
                            case 0:
                            return "break";
                            case 1:
                            return "down";
                            case 2:
                            return "left";
                            case 3:
                            return "ongoing";
                            case 4:
                            return "right";
                            case 5:
                            return "up";
                            default:
                            return "Houston we have a problem";
                        }
                    }

                protected:
                    /**
                    * Compute kernel between feature vector and support vector.
                    * Kernel type: linear
                    */
                    float compute_kernel(float *x, ...) {
                        va_list w;
                        va_start(w, 90);
                        float kernel = 0.0;

                        for (uint16_t i = 0; i < 90; i++) {
                            kernel += x[i] * va_arg(w, double);
                        }

                        return kernel;
                    }
                };
            }
        }
    }
